Language model created by QuickLM on Sun Feb 18 07:08:45 EST 2018
Copyright (c) 1996-2010 Carnegie Mellon University and Alexander I. Rudnicky

The model is in standard ARPA format, designed by Doug Paul while he was at MITRE.

The code that was used to produce this language model is available in Open Source.
Please visit http://www.speech.cs.cmu.edu/tools/ for more information

The (fixed) discount mass is 0.5. The backoffs are computed using the ratio method.
This model based on a corpus of 177 sentences and 179 words

\data\
ngram 1=179
ngram 2=354
ngram 3=177

\1-grams:
-0.7782 </s> -0.3010
-0.7782 <s> -0.2218
-3.0261 ABOUT -0.2218
-3.0261 ALL -0.2218
-3.0261 ALOT -0.2218
-3.0261 AN -0.2218
-3.0261 AND -0.2218
-3.0261 ANY -0.2218
-3.0261 ANYTHING -0.2218
-3.0261 AVATAR -0.2218
-3.0261 AWAY -0.2218
-3.0261 BE -0.2218
-3.0261 BECOME -0.2218
-3.0261 BEEF -0.2218
-3.0261 BEEN -0.2218
-3.0261 BEFORE -0.2218
-3.0261 BEING -0.2218
-3.0261 BETTER -0.2218
-3.0261 BIN -0.2218
-3.0261 BLOCK -0.2218
-3.0261 BUT -0.2218
-3.0261 CAME -0.2218
-3.0261 CAN -0.2218
-3.0261 CANT -0.2218
-3.0261 CAPABLE -0.2218
-3.0261 CELEBRATING -0.2218
-3.0261 CHAOS -0.2218
-3.0261 CHARGE -0.2218
-3.0261 CHARGED -0.2218
-3.0261 CITY -0.2218
-3.0261 COME -0.2218
-3.0261 CONTROL -0.2218
-3.0261 COUPED -0.2218
-3.0261 CREATE -0.2218
-3.0261 CREATED -0.2218
-3.0261 DICK -0.2218
-3.0261 DICTATOR -0.2218
-3.0261 DOES -0.2218
-3.0261 DOESNT -0.2218
-3.0261 DOOM -0.2218
-3.0261 DOWN -0.2218
-3.0261 EARTH -0.2218
-3.0261 EASY -0.2218
-3.0261 ELEMENTS -0.2218
-3.0261 END -0.2218
-3.0261 EVER -0.2218
-3.0261 EYE -0.2218
-3.0261 FACE -0.2218
-3.0261 FAR -0.2218
-3.0261 FEEL -0.2218
-3.0261 FINISH -0.2218
-3.0261 FOR -0.2218
-3.0261 FOUR -0.2218
-3.0261 FREEDOM -0.2218
-3.0261 FROM -0.2218
-3.0261 GET -0.2218
-3.0261 GLOOM -0.2218
-3.0261 GO -0.2218
-3.0261 GOT -0.2218
-3.0261 HAS -0.2218
-3.0261 HAVE -0.2218
-3.0261 HAVENT -0.2218
-3.0261 HELP -0.2218
-3.0261 HELPING -0.2218
-3.0261 HER -0.2218
-3.0261 HERE -0.2218
-3.0261 HES -0.2218
-3.0261 HEY -0.2218
-3.0261 HID -0.2218
-3.0261 HIDDEN -0.2218
-3.0261 HOLD -0.2218
-3.0261 HOLDING -0.2218
-3.0261 I -0.2218
-3.0261 IGNORED -0.2218
-3.0261 ILL -0.2218
-3.0261 IM -0.2218
-3.0261 IMMEDIATELY -0.2218
-3.0261 IN -0.2218
-3.0261 IS -0.2218
-3.0261 ISNT -0.2218
-3.0261 IT -0.2218
-3.0261 ITS -0.2218
-3.0261 JEW -0.2218
-3.0261 JINORA -0.2218
-3.0261 JUST -0.2218
-3.0261 KINGDOM -0.2218
-3.0261 KNOW -0.2218
-3.0261 LED -0.2218
-3.0261 LIMITS -0.2218
-3.0261 LONG -0.2218
-3.0261 LONGER -0.2218
-3.0261 LOOK -0.2218
-3.0261 LOSE -0.2218
-3.0261 MADE -0.2218
-3.0261 MAID -0.2218
-3.0261 MAY -0.2218
-3.0261 MAYBE -0.2218
-3.0261 ME -0.2218
-3.0261 MEAN -0.2218
-3.0261 MEDITATE -0.2218
-3.0261 MISS -0.2218
-3.0261 MISSED -0.2218
-3.0261 MIST -0.2218
-3.0261 MISTAKE -0.2218
-3.0261 MISTER -0.2218
-3.0261 MY -0.2218
-3.0261 MYLIST -0.2218
-3.0261 MYSELF -0.2218
-3.0261 NEEDS -0.2218
-3.0261 NEVER -0.2218
-3.0261 NO -0.2218
-3.0261 NOT -0.2218
-3.0261 NOW -0.2218
-3.0261 ONE -0.2218
-3.0261 OTHERS -0.2218
-3.0261 OUT -0.2218
-3.0261 OVER -0.2218
-3.0261 PEOPLE -0.2218
-3.0261 POISON -0.2218
-3.0261 POWER -0.2218
-3.0261 POWERS -0.2218
-3.0261 PROBLEM -0.2218
-3.0261 PUT -0.2218
-3.0261 REAL -0.2218
-3.0261 REALIZE -0.2218
-3.0261 RENAME -0.2218
-3.0261 REPUBLIC -0.2218
-3.0261 RUIN -0.2218
-3.0261 SAME -0.2218
-3.0261 SAW -0.2218
-3.0261 SCARED -0.2218
-3.0261 SEE -0.2218
-3.0261 SEEING -0.2218
-3.0261 SEEN -0.2218
-3.0261 SILENCE -0.2218
-3.0261 SPIRIT -0.2218
-3.0261 SPIRITUAL -0.2218
-3.0261 START -0.2218
-3.0261 TALK -0.2218
-3.0261 TALKING -0.2218
-3.0261 TELL -0.2218
-3.0261 TENZEN -0.2218
-3.0261 THANK -0.2218
-3.0261 THANKS -0.2218
-3.0261 THANKYOU -0.2218
-3.0261 THAT -0.2218
-3.0261 THATS -0.2218
-3.0261 THE -0.2218
-3.0261 THEN -0.2218
-3.0261 THING -0.2218
-3.0261 THINK -0.2218
-3.0261 THIS -0.2218
-3.0261 THOT -0.2218
-3.0261 THOUGHT -0.2218
-3.0261 THREE -0.2218
-3.0261 TIME -0.2218
-3.0261 TODAY -0.2218
-3.0261 TOO -0.2218
-3.0261 TOOK -0.2218
-3.0261 TRAINING -0.2218
-3.0261 TRUST -0.2218
-3.0261 UNLESS -0.2218
-3.0261 UNSTOPPABLE -0.2218
-3.0261 UP -0.2218
-3.0261 USE -0.2218
-3.0261 VERY -0.2218
-3.0261 WAIT -0.2218
-3.0261 WAS -0.2218
-3.0261 WAY -0.2218
-3.0261 WELL -0.2218
-3.0261 WERE -0.2218
-3.0261 WHAT -0.2218
-3.0261 WHATEVER -0.2218
-3.0261 WHERE -0.2218
-3.0261 WHY -0.2218
-3.0261 WILL -0.2218
-3.0261 WORLD -0.2218
-3.0261 WORST -0.2218
-3.0261 YOU -0.2218

\2-grams:
-2.5490 <s> ABOUT 0.0000
-2.5490 <s> ALL 0.0000
-2.5490 <s> ALOT 0.0000
-2.5490 <s> AN 0.0000
-2.5490 <s> AND 0.0000
-2.5490 <s> ANY 0.0000
-2.5490 <s> ANYTHING 0.0000
-2.5490 <s> AVATAR 0.0000
-2.5490 <s> AWAY 0.0000
-2.5490 <s> BE 0.0000
-2.5490 <s> BECOME 0.0000
-2.5490 <s> BEEF 0.0000
-2.5490 <s> BEEN 0.0000
-2.5490 <s> BEFORE 0.0000
-2.5490 <s> BEING 0.0000
-2.5490 <s> BETTER 0.0000
-2.5490 <s> BIN 0.0000
-2.5490 <s> BLOCK 0.0000
-2.5490 <s> BUT 0.0000
-2.5490 <s> CAME 0.0000
-2.5490 <s> CAN 0.0000
-2.5490 <s> CANT 0.0000
-2.5490 <s> CAPABLE 0.0000
-2.5490 <s> CELEBRATING 0.0000
-2.5490 <s> CHAOS 0.0000
-2.5490 <s> CHARGE 0.0000
-2.5490 <s> CHARGED 0.0000
-2.5490 <s> CITY 0.0000
-2.5490 <s> COME 0.0000
-2.5490 <s> CONTROL 0.0000
-2.5490 <s> COUPED 0.0000
-2.5490 <s> CREATE 0.0000
-2.5490 <s> CREATED 0.0000
-2.5490 <s> DICK 0.0000
-2.5490 <s> DICTATOR 0.0000
-2.5490 <s> DOES 0.0000
-2.5490 <s> DOESNT 0.0000
-2.5490 <s> DOOM 0.0000
-2.5490 <s> DOWN 0.0000
-2.5490 <s> EARTH 0.0000
-2.5490 <s> EASY 0.0000
-2.5490 <s> ELEMENTS 0.0000
-2.5490 <s> END 0.0000
-2.5490 <s> EVER 0.0000
-2.5490 <s> EYE 0.0000
-2.5490 <s> FACE 0.0000
-2.5490 <s> FAR 0.0000
-2.5490 <s> FEEL 0.0000
-2.5490 <s> FINISH 0.0000
-2.5490 <s> FOR 0.0000
-2.5490 <s> FOUR 0.0000
-2.5490 <s> FREEDOM 0.0000
-2.5490 <s> FROM 0.0000
-2.5490 <s> GET 0.0000
-2.5490 <s> GLOOM 0.0000
-2.5490 <s> GO 0.0000
-2.5490 <s> GOT 0.0000
-2.5490 <s> HAS 0.0000
-2.5490 <s> HAVE 0.0000
-2.5490 <s> HAVENT 0.0000
-2.5490 <s> HELP 0.0000
-2.5490 <s> HELPING 0.0000
-2.5490 <s> HER 0.0000
-2.5490 <s> HERE 0.0000
-2.5490 <s> HES 0.0000
-2.5490 <s> HEY 0.0000
-2.5490 <s> HID 0.0000
-2.5490 <s> HIDDEN 0.0000
-2.5490 <s> HOLD 0.0000
-2.5490 <s> HOLDING 0.0000
-2.5490 <s> I 0.0000
-2.5490 <s> IGNORED 0.0000
-2.5490 <s> ILL 0.0000
-2.5490 <s> IM 0.0000
-2.5490 <s> IMMEDIATELY 0.0000
-2.5490 <s> IN 0.0000
-2.5490 <s> IS 0.0000
-2.5490 <s> ISNT 0.0000
-2.5490 <s> IT 0.0000
-2.5490 <s> ITS 0.0000
-2.5490 <s> JEW 0.0000
-2.5490 <s> JINORA 0.0000
-2.5490 <s> JUST 0.0000
-2.5490 <s> KINGDOM 0.0000
-2.5490 <s> KNOW 0.0000
-2.5490 <s> LED 0.0000
-2.5490 <s> LIMITS 0.0000
-2.5490 <s> LONG 0.0000
-2.5490 <s> LONGER 0.0000
-2.5490 <s> LOOK 0.0000
-2.5490 <s> LOSE 0.0000
-2.5490 <s> MADE 0.0000
-2.5490 <s> MAID 0.0000
-2.5490 <s> MAY 0.0000
-2.5490 <s> MAYBE 0.0000
-2.5490 <s> ME 0.0000
-2.5490 <s> MEAN 0.0000
-2.5490 <s> MEDITATE 0.0000
-2.5490 <s> MISS 0.0000
-2.5490 <s> MISSED 0.0000
-2.5490 <s> MIST 0.0000
-2.5490 <s> MISTAKE 0.0000
-2.5490 <s> MISTER 0.0000
-2.5490 <s> MY 0.0000
-2.5490 <s> MYLIST 0.0000
-2.5490 <s> MYSELF 0.0000
-2.5490 <s> NEEDS 0.0000
-2.5490 <s> NEVER 0.0000
-2.5490 <s> NO 0.0000
-2.5490 <s> NOT 0.0000
-2.5490 <s> NOW 0.0000
-2.5490 <s> ONE 0.0000
-2.5490 <s> OTHERS 0.0000
-2.5490 <s> OUT 0.0000
-2.5490 <s> OVER 0.0000
-2.5490 <s> PEOPLE 0.0000
-2.5490 <s> POISON 0.0000
-2.5490 <s> POWER 0.0000
-2.5490 <s> POWERS 0.0000
-2.5490 <s> PROBLEM 0.0000
-2.5490 <s> PUT 0.0000
-2.5490 <s> REAL 0.0000
-2.5490 <s> REALIZE 0.0000
-2.5490 <s> RENAME 0.0000
-2.5490 <s> REPUBLIC 0.0000
-2.5490 <s> RUIN 0.0000
-2.5490 <s> SAME 0.0000
-2.5490 <s> SAW 0.0000
-2.5490 <s> SCARED 0.0000
-2.5490 <s> SEE 0.0000
-2.5490 <s> SEEING 0.0000
-2.5490 <s> SEEN 0.0000
-2.5490 <s> SILENCE 0.0000
-2.5490 <s> SPIRIT 0.0000
-2.5490 <s> SPIRITUAL 0.0000
-2.5490 <s> START 0.0000
-2.5490 <s> TALK 0.0000
-2.5490 <s> TALKING 0.0000
-2.5490 <s> TELL 0.0000
-2.5490 <s> TENZEN 0.0000
-2.5490 <s> THANK 0.0000
-2.5490 <s> THANKS 0.0000
-2.5490 <s> THANKYOU 0.0000
-2.5490 <s> THAT 0.0000
-2.5490 <s> THATS 0.0000
-2.5490 <s> THE 0.0000
-2.5490 <s> THEN 0.0000
-2.5490 <s> THING 0.0000
-2.5490 <s> THINK 0.0000
-2.5490 <s> THIS 0.0000
-2.5490 <s> THOT 0.0000
-2.5490 <s> THOUGHT 0.0000
-2.5490 <s> THREE 0.0000
-2.5490 <s> TIME 0.0000
-2.5490 <s> TODAY 0.0000
-2.5490 <s> TOO 0.0000
-2.5490 <s> TOOK 0.0000
-2.5490 <s> TRAINING 0.0000
-2.5490 <s> TRUST 0.0000
-2.5490 <s> UNLESS 0.0000
-2.5490 <s> UNSTOPPABLE 0.0000
-2.5490 <s> UP 0.0000
-2.5490 <s> USE 0.0000
-2.5490 <s> VERY 0.0000
-2.5490 <s> WAIT 0.0000
-2.5490 <s> WAS 0.0000
-2.5490 <s> WAY 0.0000
-2.5490 <s> WELL 0.0000
-2.5490 <s> WERE 0.0000
-2.5490 <s> WHAT 0.0000
-2.5490 <s> WHATEVER 0.0000
-2.5490 <s> WHERE 0.0000
-2.5490 <s> WHY 0.0000
-2.5490 <s> WILL 0.0000
-2.5490 <s> WORLD 0.0000
-2.5490 <s> WORST 0.0000
-2.5490 <s> YOU 0.0000
-0.3010 ABOUT </s> -0.3010
-0.3010 ALL </s> -0.3010
-0.3010 ALOT </s> -0.3010
-0.3010 AN </s> -0.3010
-0.3010 AND </s> -0.3010
-0.3010 ANY </s> -0.3010
-0.3010 ANYTHING </s> -0.3010
-0.3010 AVATAR </s> -0.3010
-0.3010 AWAY </s> -0.3010
-0.3010 BE </s> -0.3010
-0.3010 BECOME </s> -0.3010
-0.3010 BEEF </s> -0.3010
-0.3010 BEEN </s> -0.3010
-0.3010 BEFORE </s> -0.3010
-0.3010 BEING </s> -0.3010
-0.3010 BETTER </s> -0.3010
-0.3010 BIN </s> -0.3010
-0.3010 BLOCK </s> -0.3010
-0.3010 BUT </s> -0.3010
-0.3010 CAME </s> -0.3010
-0.3010 CAN </s> -0.3010
-0.3010 CANT </s> -0.3010
-0.3010 CAPABLE </s> -0.3010
-0.3010 CELEBRATING </s> -0.3010
-0.3010 CHAOS </s> -0.3010
-0.3010 CHARGE </s> -0.3010
-0.3010 CHARGED </s> -0.3010
-0.3010 CITY </s> -0.3010
-0.3010 COME </s> -0.3010
-0.3010 CONTROL </s> -0.3010
-0.3010 COUPED </s> -0.3010
-0.3010 CREATE </s> -0.3010
-0.3010 CREATED </s> -0.3010
-0.3010 DICK </s> -0.3010
-0.3010 DICTATOR </s> -0.3010
-0.3010 DOES </s> -0.3010
-0.3010 DOESNT </s> -0.3010
-0.3010 DOOM </s> -0.3010
-0.3010 DOWN </s> -0.3010
-0.3010 EARTH </s> -0.3010
-0.3010 EASY </s> -0.3010
-0.3010 ELEMENTS </s> -0.3010
-0.3010 END </s> -0.3010
-0.3010 EVER </s> -0.3010
-0.3010 EYE </s> -0.3010
-0.3010 FACE </s> -0.3010
-0.3010 FAR </s> -0.3010
-0.3010 FEEL </s> -0.3010
-0.3010 FINISH </s> -0.3010
-0.3010 FOR </s> -0.3010
-0.3010 FOUR </s> -0.3010
-0.3010 FREEDOM </s> -0.3010
-0.3010 FROM </s> -0.3010
-0.3010 GET </s> -0.3010
-0.3010 GLOOM </s> -0.3010
-0.3010 GO </s> -0.3010
-0.3010 GOT </s> -0.3010
-0.3010 HAS </s> -0.3010
-0.3010 HAVE </s> -0.3010
-0.3010 HAVENT </s> -0.3010
-0.3010 HELP </s> -0.3010
-0.3010 HELPING </s> -0.3010
-0.3010 HER </s> -0.3010
-0.3010 HERE </s> -0.3010
-0.3010 HES </s> -0.3010
-0.3010 HEY </s> -0.3010
-0.3010 HID </s> -0.3010
-0.3010 HIDDEN </s> -0.3010
-0.3010 HOLD </s> -0.3010
-0.3010 HOLDING </s> -0.3010
-0.3010 I </s> -0.3010
-0.3010 IGNORED </s> -0.3010
-0.3010 ILL </s> -0.3010
-0.3010 IM </s> -0.3010
-0.3010 IMMEDIATELY </s> -0.3010
-0.3010 IN </s> -0.3010
-0.3010 IS </s> -0.3010
-0.3010 ISNT </s> -0.3010
-0.3010 IT </s> -0.3010
-0.3010 ITS </s> -0.3010
-0.3010 JEW </s> -0.3010
-0.3010 JINORA </s> -0.3010
-0.3010 JUST </s> -0.3010
-0.3010 KINGDOM </s> -0.3010
-0.3010 KNOW </s> -0.3010
-0.3010 LED </s> -0.3010
-0.3010 LIMITS </s> -0.3010
-0.3010 LONG </s> -0.3010
-0.3010 LONGER </s> -0.3010
-0.3010 LOOK </s> -0.3010
-0.3010 LOSE </s> -0.3010
-0.3010 MADE </s> -0.3010
-0.3010 MAID </s> -0.3010
-0.3010 MAY </s> -0.3010
-0.3010 MAYBE </s> -0.3010
-0.3010 ME </s> -0.3010
-0.3010 MEAN </s> -0.3010
-0.3010 MEDITATE </s> -0.3010
-0.3010 MISS </s> -0.3010
-0.3010 MISSED </s> -0.3010
-0.3010 MIST </s> -0.3010
-0.3010 MISTAKE </s> -0.3010
-0.3010 MISTER </s> -0.3010
-0.3010 MY </s> -0.3010
-0.3010 MYLIST </s> -0.3010
-0.3010 MYSELF </s> -0.3010
-0.3010 NEEDS </s> -0.3010
-0.3010 NEVER </s> -0.3010
-0.3010 NO </s> -0.3010
-0.3010 NOT </s> -0.3010
-0.3010 NOW </s> -0.3010
-0.3010 ONE </s> -0.3010
-0.3010 OTHERS </s> -0.3010
-0.3010 OUT </s> -0.3010
-0.3010 OVER </s> -0.3010
-0.3010 PEOPLE </s> -0.3010
-0.3010 POISON </s> -0.3010
-0.3010 POWER </s> -0.3010
-0.3010 POWERS </s> -0.3010
-0.3010 PROBLEM </s> -0.3010
-0.3010 PUT </s> -0.3010
-0.3010 REAL </s> -0.3010
-0.3010 REALIZE </s> -0.3010
-0.3010 RENAME </s> -0.3010
-0.3010 REPUBLIC </s> -0.3010
-0.3010 RUIN </s> -0.3010
-0.3010 SAME </s> -0.3010
-0.3010 SAW </s> -0.3010
-0.3010 SCARED </s> -0.3010
-0.3010 SEE </s> -0.3010
-0.3010 SEEING </s> -0.3010
-0.3010 SEEN </s> -0.3010
-0.3010 SILENCE </s> -0.3010
-0.3010 SPIRIT </s> -0.3010
-0.3010 SPIRITUAL </s> -0.3010
-0.3010 START </s> -0.3010
-0.3010 TALK </s> -0.3010
-0.3010 TALKING </s> -0.3010
-0.3010 TELL </s> -0.3010
-0.3010 TENZEN </s> -0.3010
-0.3010 THANK </s> -0.3010
-0.3010 THANKS </s> -0.3010
-0.3010 THANKYOU </s> -0.3010
-0.3010 THAT </s> -0.3010
-0.3010 THATS </s> -0.3010
-0.3010 THE </s> -0.3010
-0.3010 THEN </s> -0.3010
-0.3010 THING </s> -0.3010
-0.3010 THINK </s> -0.3010
-0.3010 THIS </s> -0.3010
-0.3010 THOT </s> -0.3010
-0.3010 THOUGHT </s> -0.3010
-0.3010 THREE </s> -0.3010
-0.3010 TIME </s> -0.3010
-0.3010 TODAY </s> -0.3010
-0.3010 TOO </s> -0.3010
-0.3010 TOOK </s> -0.3010
-0.3010 TRAINING </s> -0.3010
-0.3010 TRUST </s> -0.3010
-0.3010 UNLESS </s> -0.3010
-0.3010 UNSTOPPABLE </s> -0.3010
-0.3010 UP </s> -0.3010
-0.3010 USE </s> -0.3010
-0.3010 VERY </s> -0.3010
-0.3010 WAIT </s> -0.3010
-0.3010 WAS </s> -0.3010
-0.3010 WAY </s> -0.3010
-0.3010 WELL </s> -0.3010
-0.3010 WERE </s> -0.3010
-0.3010 WHAT </s> -0.3010
-0.3010 WHATEVER </s> -0.3010
-0.3010 WHERE </s> -0.3010
-0.3010 WHY </s> -0.3010
-0.3010 WILL </s> -0.3010
-0.3010 WORLD </s> -0.3010
-0.3010 WORST </s> -0.3010
-0.3010 YOU </s> -0.3010

\3-grams:
-0.3010 <s> ABOUT </s>
-0.3010 <s> ALL </s>
-0.3010 <s> ALOT </s>
-0.3010 <s> AN </s>
-0.3010 <s> AND </s>
-0.3010 <s> ANY </s>
-0.3010 <s> ANYTHING </s>
-0.3010 <s> AVATAR </s>
-0.3010 <s> AWAY </s>
-0.3010 <s> BE </s>
-0.3010 <s> BECOME </s>
-0.3010 <s> BEEF </s>
-0.3010 <s> BEEN </s>
-0.3010 <s> BEFORE </s>
-0.3010 <s> BEING </s>
-0.3010 <s> BETTER </s>
-0.3010 <s> BIN </s>
-0.3010 <s> BLOCK </s>
-0.3010 <s> BUT </s>
-0.3010 <s> CAME </s>
-0.3010 <s> CAN </s>
-0.3010 <s> CANT </s>
-0.3010 <s> CAPABLE </s>
-0.3010 <s> CELEBRATING </s>
-0.3010 <s> CHAOS </s>
-0.3010 <s> CHARGE </s>
-0.3010 <s> CHARGED </s>
-0.3010 <s> CITY </s>
-0.3010 <s> COME </s>
-0.3010 <s> CONTROL </s>
-0.3010 <s> COUPED </s>
-0.3010 <s> CREATE </s>
-0.3010 <s> CREATED </s>
-0.3010 <s> DICK </s>
-0.3010 <s> DICTATOR </s>
-0.3010 <s> DOES </s>
-0.3010 <s> DOESNT </s>
-0.3010 <s> DOOM </s>
-0.3010 <s> DOWN </s>
-0.3010 <s> EARTH </s>
-0.3010 <s> EASY </s>
-0.3010 <s> ELEMENTS </s>
-0.3010 <s> END </s>
-0.3010 <s> EVER </s>
-0.3010 <s> EYE </s>
-0.3010 <s> FACE </s>
-0.3010 <s> FAR </s>
-0.3010 <s> FEEL </s>
-0.3010 <s> FINISH </s>
-0.3010 <s> FOR </s>
-0.3010 <s> FOUR </s>
-0.3010 <s> FREEDOM </s>
-0.3010 <s> FROM </s>
-0.3010 <s> GET </s>
-0.3010 <s> GLOOM </s>
-0.3010 <s> GO </s>
-0.3010 <s> GOT </s>
-0.3010 <s> HAS </s>
-0.3010 <s> HAVE </s>
-0.3010 <s> HAVENT </s>
-0.3010 <s> HELP </s>
-0.3010 <s> HELPING </s>
-0.3010 <s> HER </s>
-0.3010 <s> HERE </s>
-0.3010 <s> HES </s>
-0.3010 <s> HEY </s>
-0.3010 <s> HID </s>
-0.3010 <s> HIDDEN </s>
-0.3010 <s> HOLD </s>
-0.3010 <s> HOLDING </s>
-0.3010 <s> I </s>
-0.3010 <s> IGNORED </s>
-0.3010 <s> ILL </s>
-0.3010 <s> IM </s>
-0.3010 <s> IMMEDIATELY </s>
-0.3010 <s> IN </s>
-0.3010 <s> IS </s>
-0.3010 <s> ISNT </s>
-0.3010 <s> IT </s>
-0.3010 <s> ITS </s>
-0.3010 <s> JEW </s>
-0.3010 <s> JINORA </s>
-0.3010 <s> JUST </s>
-0.3010 <s> KINGDOM </s>
-0.3010 <s> KNOW </s>
-0.3010 <s> LED </s>
-0.3010 <s> LIMITS </s>
-0.3010 <s> LONG </s>
-0.3010 <s> LONGER </s>
-0.3010 <s> LOOK </s>
-0.3010 <s> LOSE </s>
-0.3010 <s> MADE </s>
-0.3010 <s> MAID </s>
-0.3010 <s> MAY </s>
-0.3010 <s> MAYBE </s>
-0.3010 <s> ME </s>
-0.3010 <s> MEAN </s>
-0.3010 <s> MEDITATE </s>
-0.3010 <s> MISS </s>
-0.3010 <s> MISSED </s>
-0.3010 <s> MIST </s>
-0.3010 <s> MISTAKE </s>
-0.3010 <s> MISTER </s>
-0.3010 <s> MY </s>
-0.3010 <s> MYLIST </s>
-0.3010 <s> MYSELF </s>
-0.3010 <s> NEEDS </s>
-0.3010 <s> NEVER </s>
-0.3010 <s> NO </s>
-0.3010 <s> NOT </s>
-0.3010 <s> NOW </s>
-0.3010 <s> ONE </s>
-0.3010 <s> OTHERS </s>
-0.3010 <s> OUT </s>
-0.3010 <s> OVER </s>
-0.3010 <s> PEOPLE </s>
-0.3010 <s> POISON </s>
-0.3010 <s> POWER </s>
-0.3010 <s> POWERS </s>
-0.3010 <s> PROBLEM </s>
-0.3010 <s> PUT </s>
-0.3010 <s> REAL </s>
-0.3010 <s> REALIZE </s>
-0.3010 <s> RENAME </s>
-0.3010 <s> REPUBLIC </s>
-0.3010 <s> RUIN </s>
-0.3010 <s> SAME </s>
-0.3010 <s> SAW </s>
-0.3010 <s> SCARED </s>
-0.3010 <s> SEE </s>
-0.3010 <s> SEEING </s>
-0.3010 <s> SEEN </s>
-0.3010 <s> SILENCE </s>
-0.3010 <s> SPIRIT </s>
-0.3010 <s> SPIRITUAL </s>
-0.3010 <s> START </s>
-0.3010 <s> TALK </s>
-0.3010 <s> TALKING </s>
-0.3010 <s> TELL </s>
-0.3010 <s> TENZEN </s>
-0.3010 <s> THANK </s>
-0.3010 <s> THANKS </s>
-0.3010 <s> THANKYOU </s>
-0.3010 <s> THAT </s>
-0.3010 <s> THATS </s>
-0.3010 <s> THE </s>
-0.3010 <s> THEN </s>
-0.3010 <s> THING </s>
-0.3010 <s> THINK </s>
-0.3010 <s> THIS </s>
-0.3010 <s> THOT </s>
-0.3010 <s> THOUGHT </s>
-0.3010 <s> THREE </s>
-0.3010 <s> TIME </s>
-0.3010 <s> TODAY </s>
-0.3010 <s> TOO </s>
-0.3010 <s> TOOK </s>
-0.3010 <s> TRAINING </s>
-0.3010 <s> TRUST </s>
-0.3010 <s> UNLESS </s>
-0.3010 <s> UNSTOPPABLE </s>
-0.3010 <s> UP </s>
-0.3010 <s> USE </s>
-0.3010 <s> VERY </s>
-0.3010 <s> WAIT </s>
-0.3010 <s> WAS </s>
-0.3010 <s> WAY </s>
-0.3010 <s> WELL </s>
-0.3010 <s> WERE </s>
-0.3010 <s> WHAT </s>
-0.3010 <s> WHATEVER </s>
-0.3010 <s> WHERE </s>
-0.3010 <s> WHY </s>
-0.3010 <s> WILL </s>
-0.3010 <s> WORLD </s>
-0.3010 <s> WORST </s>
-0.3010 <s> YOU </s>

\end\
