nguage model created by QuickLM on Sat Feb 17 12:29:07 EST 2018
Copyright (c) 1996-2010 Carnegie Mellon University and Alexander I. Rudnicky

The model is in standard ARPA format, designed by Doug Paul while he was at MITRE.

The code that was used to produce this language model is available in Open Source.
Please visit http://www.speech.cs.cmu.edu/tools/ for more information

The (fixed) discount mass is 0.5. The backoffs are computed using the ratio method.
This model based on a corpus of 65 sentences and 68 words

\data\
ngram 1=68
ngram 2=131
ngram 3=66

\1-grams:
-0.7804 </s> -0.3010
-0.7804 <s> -0.2223
-2.5933 ALL -0.2223
-2.5933 ALOT -0.2223
-2.5933 ANY -0.2223
-2.5933 AVATAR -0.2223
-2.5933 BE -0.2223
-2.5933 BECOME -0.2223
-2.5933 BEING -0.2223
-2.5933 BETTER -0.2223
-2.5933 BUT -0.2223
-2.5933 CANT -0.2223
-2.5933 CELEBRATING -0.2223
-2.5933 CITY -0.2223
-2.5933 COME -0.2223
-2.5933 COUPED -0.2223
-2.5933 DOES -0.2223
-2.5933 DOESNT -0.2223
-2.5933 DOOM -0.2223
-2.5933 EASY -0.2223
-2.5933 ELEMENTS -0.2223
-2.5933 FINALLY -0.2223
-2.5933 FINISH -0.2223
-2.5933 FOR -0.2223
-2.5933 GLOOM -0.2223
-2.5933 GO -0.2223
-2.5933 HAVENT -0.2223
-2.5933 HELP -0.2223
-2.5933 HELPING -0.2223
-2.5933 HES -0.2223
-2.5933 HEY -0.2223
-2.5933 HIDDENAWAY -0.2223
-2.5933 I -0.2223
-2.5933 IGNORED -0.2223
-2.5933 IMMEDIATELY -0.2223
-2.5933 ISNT -0.2223
-2.5933 IT -0.2223
-2.5933 JEW -0.2223
-2.5933 JUST -0.2223
-2.5933 LONGER -0.2223
-2.5933 LOOK -0.2223
-2.5933 MEAN -0.2223
-2.5933 MISTER -0.2223
-2.5933 MY -0.2223
-2.5933 MYLIST -0.2223
-2.5933 NEEDS -0.2223
-2.5933 ONE -0.2223
-2.5933 PEOPLE -0.2223
-2.5933 REPUBLIC -0.2223
-2.5933 SAW -0.2223
-2.5933 SILENCE -0.2223
-2.5933 SPIRITUAL -0.2223
-2.5933 START -0.2223
-2.5933 TENZEN -0.2223
-2.5933 THANK -0.2223
-2.5933 THANKYOU -0.2223
-2.5933 THAT -0.2223
-2.5933 THATS -0.2223
-2.5933 THECITY -0.2223
-2.5933 THREE -0.2223
-2.5933 TODAY -0.2223
-2.5933 TRAINING -0.2223
-2.5933 UP -0.2223
-2.5933 WAIT -0.2223
-2.5933 WHY -0.2223
-2.5933 WORLD -0.2223
-2.5933 YES -0.2999
-2.5933 YOU -0.2223

\2-grams:
-2.1139 <s> ALL 0.0000
-2.1139 <s> ALOT 0.0000
-2.1139 <s> ANY 0.0000
-2.1139 <s> AVATAR 0.0000
-2.1139 <s> BE 0.0000
-2.1139 <s> BECOME 0.0000
-2.1139 <s> BEING 0.0000
-2.1139 <s> BETTER 0.0000
-2.1139 <s> BUT 0.0000
-2.1139 <s> CANT 0.0000
-2.1139 <s> CELEBRATING 0.0000
-2.1139 <s> CITY 0.0000
-2.1139 <s> COME 0.0000
-2.1139 <s> COUPED 0.0000
-2.1139 <s> DOES 0.0000
-2.1139 <s> DOESNT 0.0000
-2.1139 <s> DOOM 0.0000
-2.1139 <s> EASY 0.0000
-2.1139 <s> ELEMENTS 0.0000
-2.1139 <s> FINISH 0.0000
-2.1139 <s> FOR 0.0000
-2.1139 <s> GLOOM 0.0000
-2.1139 <s> GO 0.0000
-2.1139 <s> HAVENT 0.0000
-2.1139 <s> HELP 0.0000
-2.1139 <s> HELPING 0.0000
-2.1139 <s> HES 0.0000
-2.1139 <s> HEY 0.0000
-2.1139 <s> HIDDENAWAY 0.0000
-2.1139 <s> I 0.0000
-2.1139 <s> IGNORED 0.0000
-2.1139 <s> IMMEDIATELY 0.0000
-2.1139 <s> ISNT 0.0000
-2.1139 <s> IT 0.0000
-2.1139 <s> JEW 0.0000
-2.1139 <s> JUST 0.0000
-2.1139 <s> LONGER 0.0000
-2.1139 <s> LOOK 0.0000
-2.1139 <s> MEAN 0.0000
-2.1139 <s> MISTER 0.0000
-2.1139 <s> MY 0.0000
-2.1139 <s> MYLIST 0.0000
-2.1139 <s> NEEDS 0.0000
-2.1139 <s> ONE 0.0000
-2.1139 <s> PEOPLE 0.0000
-2.1139 <s> REPUBLIC 0.0000
-2.1139 <s> SAW 0.0000
-2.1139 <s> SILENCE 0.0000
-2.1139 <s> SPIRITUAL 0.0000
-2.1139 <s> START 0.0000
-2.1139 <s> TENZEN 0.0000
-2.1139 <s> THANK 0.0000
-2.1139 <s> THANKYOU 0.0000
-2.1139 <s> THAT 0.0000
-2.1139 <s> THATS 0.0000
-2.1139 <s> THECITY 0.0000
-2.1139 <s> THREE 0.0000
-2.1139 <s> TODAY 0.0000
-2.1139 <s> TRAINING 0.0000
-2.1139 <s> UP 0.0000
-2.1139 <s> WAIT 0.0000
-2.1139 <s> WHY 0.0000
-2.1139 <s> WORLD 0.0000
-2.1139 <s> YES 0.0000
-2.1139 <s> YOU 0.0000
-0.3010 ALL </s> -0.3010
-0.3010 ALOT </s> -0.3010
-0.3010 ANY </s> -0.3010
-0.3010 AVATAR </s> -0.3010
-0.3010 BE </s> -0.3010
-0.3010 BECOME </s> -0.3010
-0.3010 BEING </s> -0.3010
-0.3010 BETTER </s> -0.3010
-0.3010 BUT </s> -0.3010
-0.3010 CANT </s> -0.3010
-0.3010 CELEBRATING </s> -0.3010
-0.3010 CITY </s> -0.3010
-0.3010 COME </s> -0.3010
-0.3010 COUPED </s> -0.3010
-0.3010 DOES </s> -0.3010
-0.3010 DOESNT </s> -0.3010
-0.3010 DOOM </s> -0.3010
-0.3010 EASY </s> -0.3010
-0.3010 ELEMENTS </s> -0.3010
-0.3010 FINALLY </s> -0.3010
-0.3010 FINISH </s> -0.3010
-0.3010 FOR </s> -0.3010
-0.3010 GLOOM </s> -0.3010
-0.3010 GO </s> -0.3010
-0.3010 HAVENT </s> -0.3010
-0.3010 HELP </s> -0.3010
-0.3010 HELPING </s> -0.3010
-0.3010 HES </s> -0.3010
-0.3010 HEY </s> -0.3010
-0.3010 HIDDENAWAY </s> -0.3010
-0.3010 I </s> -0.3010
-0.3010 IGNORED </s> -0.3010
-0.3010 IMMEDIATELY </s> -0.3010
-0.3010 ISNT </s> -0.3010
-0.3010 IT </s> -0.3010
-0.3010 JEW </s> -0.3010
-0.3010 JUST </s> -0.3010
-0.3010 LONGER </s> -0.3010
-0.3010 LOOK </s> -0.3010
-0.3010 MEAN </s> -0.3010
-0.3010 MISTER </s> -0.3010
-0.3010 MY </s> -0.3010
-0.3010 MYLIST </s> -0.3010
-0.3010 NEEDS </s> -0.3010
-0.3010 ONE </s> -0.3010
-0.3010 PEOPLE </s> -0.3010
-0.3010 REPUBLIC </s> -0.3010
-0.3010 SAW </s> -0.3010
-0.3010 SILENCE </s> -0.3010
-0.3010 SPIRITUAL </s> -0.3010
-0.3010 START </s> -0.3010
-0.3010 TENZEN </s> -0.3010
-0.3010 THANK </s> -0.3010
-0.3010 THANKYOU </s> -0.3010
-0.3010 THAT </s> -0.3010
-0.3010 THATS </s> -0.3010
-0.3010 THECITY </s> -0.3010
-0.3010 THREE </s> -0.3010
-0.3010 TODAY </s> -0.3010
-0.3010 TRAINING </s> -0.3010
-0.3010 UP </s> -0.3010
-0.3010 WAIT </s> -0.3010
-0.3010 WHY </s> -0.3010
-0.3010 WORLD </s> -0.3010
-0.3010 YES FINALLY 0.0000
-0.3010 YOU </s> -0.3010

\3-grams:
-0.3010 <s> ALL </s>
-0.3010 <s> ALOT </s>
-0.3010 <s> ANY </s>
-0.3010 <s> AVATAR </s>
-0.3010 <s> BE </s>
-0.3010 <s> BECOME </s>
-0.3010 <s> BEING </s>
-0.3010 <s> BETTER </s>
-0.3010 <s> BUT </s>
-0.3010 <s> CANT </s>
-0.3010 <s> CELEBRATING </s>
-0.3010 <s> CITY </s>
-0.3010 <s> COME </s>
-0.3010 <s> COUPED </s>
-0.3010 <s> DOES </s>
-0.3010 <s> DOESNT </s>
-0.3010 <s> DOOM </s>
-0.3010 <s> EASY </s>
-0.3010 <s> ELEMENTS </s>
-0.3010 <s> FINISH </s>
-0.3010 <s> FOR </s>
-0.3010 <s> GLOOM </s>
-0.3010 <s> GO </s>
-0.3010 <s> HAVENT </s>
-0.3010 <s> HELP </s>
-0.3010 <s> HELPING </s>
-0.3010 <s> HES </s>
-0.3010 <s> HEY </s>
-0.3010 <s> HIDDENAWAY </s>
-0.3010 <s> I </s>
-0.3010 <s> IGNORED </s>
-0.3010 <s> IMMEDIATELY </s>
-0.3010 <s> ISNT </s>
-0.3010 <s> IT </s>
-0.3010 <s> JEW </s>
-0.3010 <s> JUST </s>
-0.3010 <s> LONGER </s>
-0.3010 <s> LOOK </s>
-0.3010 <s> MEAN </s>
-0.3010 <s> MISTER </s>
-0.3010 <s> MY </s>
-0.3010 <s> MYLIST </s>
-0.3010 <s> NEEDS </s>
-0.3010 <s> ONE </s>
-0.3010 <s> PEOPLE </s>
-0.3010 <s> REPUBLIC </s>
-0.3010 <s> SAW </s>
-0.3010 <s> SILENCE </s>
-0.3010 <s> SPIRITUAL </s>
-0.3010 <s> START </s>
-0.3010 <s> TENZEN </s>
-0.3010 <s> THANK </s>
-0.3010 <s> THANKYOU </s>
-0.3010 <s> THAT </s>
-0.3010 <s> THATS </s>
-0.3010 <s> THECITY </s>
-0.3010 <s> THREE </s>
-0.3010 <s> TODAY </s>
-0.3010 <s> TRAINING </s>
-0.3010 <s> UP </s>
-0.3010 <s> WAIT </s>
-0.3010 <s> WHY </s>
-0.3010 <s> WORLD </s>
-0.3010 <s> YES FINALLY
-0.3010 <s> YOU </s>
-0.3010 YES FINALLY </s>

\end\
